cOrange.classification.svm
SVMClassifier
p1
(cOrange.classification.svm
_SVMClassifier
p2
(cOrange.orange
__pickleLoaderDomain
p3
(cOrange.data
Domain
p4
cOrange.core
VarList
p5
(tRp6
cOrange.orange
__pickleLoaderVariable
p7
(cOrange.feature
Continuous
p8
(dp9
S'source_variable'
p10
NsS'ordered'
p11
I1
sS'var_type'
p12
I2
sS'scientific_format'
p13
I0
sS'random_generator'
p14
NsS'distributed'
p15
I0
sS'number_of_decimals'
p16
I1
sS'end_value'
p17
F0
sS'step_value'
p18
F-1
sS'default_meta_id'
p19
I0
sS'start_value'
p20
F-1
sS'attributes'
p21
(dp22
sS'adjust_decimals'
p23
I1
sS'name'
p24
S'F_0'
p25
stRp26
(dp27
S'get_value_from'
p28
Nsbag7
(g8
(dp29
g10
Nsg11
I1
sg12
I2
sg13
I0
sg14
Nsg15
I0
sg16
I15
sg17
F0
sg18
F-1
sg19
I0
sg20
F-1
sS'attributes'
p30
(dp31
sg23
I1
sS'name'
p32
S'F_1'
p33
stRp34
(dp35
g28
Nsbag7
(g8
(dp36
g10
Nsg11
I1
sg12
I2
sg13
I1
sg14
Nsg15
I0
sg16
I11
sg17
F0
sg18
F-1
sg19
I0
sg20
F-1
sS'attributes'
p37
(dp38
sg23
I1
sS'name'
p39
S'F_2'
p40
stRp41
(dp42
g28
Nsba(dbg7
(g8
(dp43
g10
Nsg11
I1
sg12
I2
sg13
I0
sg14
Nsg15
I0
sg16
I7
sg17
F0
sg18
F-1
sg19
I0
sg20
F-1
sS'attributes'
p44
(dp45
sg23
I1
sS'name'
p46
S'F_3'
p47
stRp48
(dp49
g28
Nsbg5
(tRp50
(db(d(dtRp51
(dbS'svm_type epsilon_svr\nkernel_type rbf\ngamma 0.5\nnr_class 2\ntotal_sv 138\nrho 0.49158583235304576\nprobA 0.088568816256092711\nSV\n0.28879114090753111 1:3 2:0.56872117519378662 3:1.0139329433441162 \n0.26126320645474554 1:4 2:1.0436670780181885 3:2.0205008983612061 \n0.22060872135283996 1:2 2:1.1106853485107422 3:5.2732748985290527 \n0.20735270781111922 1:4 2:1.0617568492889404 3:6.2805171012878418 \n0.20384814595387041 1:2 2:1.1111824512481689 3:9.4742393493652344 \n0.17897916227622521 1:4 2:1.6083199977874756 3:10.489348411560059 \n0.020938413480462822 1:4 2:1.7407097816467285 3:11.493819236755371 \n0.11063489675340259 1:3 2:2.0334370136260986 3:12.502505302429199 \n0.13222015004536009 1:3 2:1.9136530160903931 3:15.729118347167969 \n0.059183318374646618 1:4 2:2.0198738574981689 3:16.736396789550781 \n0.045434262201165067 1:3 2:1.9078365564346313 3:17.74302864074707 \n0.067542753786684576 1:3 2:1.9358326196670532 3:18.749380111694336 \n0.033552460100218222 1:3 2:1.8084440231323242 3:24.167238235473633 \n0.035561163506047849 1:3 2:1.7696101665496826 3:25.180385589599609 \n0.00689314494456017 1:2 2:1.3893643617630005 3:28.407804489135742 \n-0.054256367971242087 1:3 2:2.3634791374206543 3:44.010364532470703 \n-0.0090706776055233806 1:4 2:2.7153429985046387 3:45.01934814453125 \n-0.037300114288476717 1:3 2:2.831139087677002 3:48.258602142333984 \n-0.10059803581790711 1:4 2:3.1171872615814209 3:49.266517639160156 \n-0.11484639262600371 1:2 2:2.3163471221923828 3:50.269863128662109 \n-0.10308779385056838 1:4 2:2.99210524559021 3:51.275112152099609 \n-0.23586550253839647 1:3 2:4.0469164848327637 3:54.451835632324219 \n0.34832146371988021 1:3 2:5552.3974609375 3:11.603325843811035 \n0.3177977519203406 1:4 2:9743.548828125 3:20.569480895996094 \n0.27589097548599545 1:3 2:8953.365234375 3:36.344928741455078 \n0.24631234069739616 1:6 2:20525.7734375 3:45.430824279785156 \n0.17608934800473389 1:4 2:16387.759765625 3:49.785289764404297 \n0.14803830729418796 1:8 2:27222.9296875 3:52.075485229492188 \n0.10460718833967253 1:5 2:18507.48828125 3:61.066764831542969 \n0.081104065505351347 1:4 2:19806.958984375 3:70.157501220703125 \n0.11320672175688615 1:5 2:20462.669921875 3:75.829338073730469 \n0.081060513871038492 1:5 2:22714.576171875 3:84.816490173339844 \n0.057172790893761372 1:5 2:30557.46875 3:93.873893737792969 \n0.026100330308836378 1:6 2:34972.35546875 3:99.461952209472656 \n-0.016888517305464562 1:5 2:38788.8515625 3:149.60391235351562 \n-0.024590245136936834 1:6 2:37490.07421875 3:158.52719116210938 \n-0.05291526407269076 1:5 2:36957.59375 3:162.98025512695312 \n-0.079358605545941263 1:7 2:55548.609375 3:165.17930603027344 \n-0.1168385132468335 1:5 2:40144.43359375 3:174.09425354003906 \n-0.12423973919059692 1:5 2:49126.0546875 3:183.08340454101562 \n-0.1299239918589592 1:5 2:53431.66015625 3:192.05096435546875 \n-0.14950572603310711 1:4 2:46754.2734375 3:196.42665100097656 \n-0.26096538975522954 1:6 2:52878.3125 3:198.58514404296875 \n0.37323012983152321 1:10 2:5.9036893844604492 3:11.603325843811035 \n0.30492220715822915 1:5 2:3.7570617198944092 3:19.46739387512207 \n0.27714113973656274 1:6 2:5.094489574432373 3:27.352561950683594 \n0.19789754820898939 1:5 2:5.0690617561340332 3:31.707023620605469 \n0.1933099716734723 1:6 2:6.4274992942810059 3:36.116081237792969 \n0.16159973539523909 1:8 2:8.6165542602539062 3:45.206817626953125 \n0.15366322161742532 1:6 2:7.4776973724365234 3:50.878650665283203 \n0.031763399240011814 1:6 2:7.5939044952392578 3:55.3289794921875 \n0.12423973919059692 1:6 2:8.8016853332519531 3:63.178592681884766 \n0.07447889323728335 1:6 2:7.4160499572753906 3:71.086128234863281 \n0.070942240055244243 1:6 2:6.7537307739257812 3:78.875885009765625 \n0.048267575231821652 1:6 2:9.3261194229125977 3:86.666000366210938 \n0.017383321949448194 1:4 2:5.7828078269958496 3:91.100028991699219 \n-0.040157793491271021 1:4 2:10.790478706359863 3:125.22348785400391 \n-0.028357099173787891 1:7 2:16.968584060668945 3:127.42253875732422 \n-0.077080414950503676 1:6 2:12.011457443237305 3:131.76922607421875 \n-0.085615998164559309 1:5 2:13.747867584228516 3:139.51962280273438 \n-0.13325501793934524 1:6 2:16.103723526000977 3:148.4871826171875 \n-0.12038828566384113 1:6 2:12.856754302978516 3:149.49494934082031 \n-0.13705279449447044 1:6 2:9.7871932983398438 3:153.87063598632812 \n-0.16159973539523909 1:5 2:13.208873748779297 3:166.08306884765625 \n-0.20573345372583002 1:4 2:11.095539093017578 3:169.29103088378906 \n-0.32248688887725052 1:5 2:14.62845516204834 3:174.72691345214844 \n0.34157471061664357 1:12 2:50969.17578125 3:28.973037719726562 \n0.26284006937882931 1:14 2:61277.1796875 3:40.595737457275391 \n0.22856607946636728 1:7 2:38268.27734375 3:53.31378173828125 \n0.19623023401052439 1:7 2:40468.3203125 3:68.370010375976562 \n0.22754324050220306 1:8 2:40019.859375 3:76.435470581054688 \n0.18240146173793365 1:11 2:66022.890625 3:83.183998107910156 \n0.15312232847587434 1:6 2:40190.4140625 3:88.869461059570312 \n0.15639592716070469 1:13 2:82614.296875 3:94.804931640625 \n0.098156076145247018 1:10 2:82327.578125 3:106.19425964355469 \n0.025400464231511932 1:12 2:160341.5 3:142.43991088867188 \n-0.00057394845842101416 1:8 2:77962.6796875 3:204.67633056640625 \n-0.033329806093730457 1:10 2:95547.171875 3:223.10096740722656 \n-0.064087203771200502 1:8 2:100563.734375 3:225.29252624511719 \n-0.10150400549173355 1:19 2:211931.375 3:236.77241516113281 \n-0.14973194151243047 1:8 2:78273.8203125 3:244.69584655761719 \n-0.17526909502552904 1:7 2:102064.96875 3:256.33880615234375 \n-0.17708195789216735 1:8 2:131963.1875 3:270.52493286132812 \n-0.19789754820898939 1:5 2:95755.1796875 3:280.59616088867188 \n-0.28037037764587741 1:3 2:45109.40625 3:315.11550903320312 \n-0.2601269818842411 1:8 2:132456.125 3:327.65628051757812 \n-0.30040873019424619 1:4 2:58888.71484375 3:328.65948486328125 \n-0.32960603758692741 1:4 2:93645.265625 3:347.37835693359375 \n-0.36368165750655002 1:6 2:106989.984375 3:352.85922241210938 \n-0.41068029980170911 1:3 2:52340.515625 3:353.86578369140625 \n-0.49126392230292004 1:3 2:62254.94140625 3:357.07073974609375 \n0.29569841282712883 1:3 2:2.8969025611877441 3:8.3375139236450195 \n0.32442785893556875 1:7 2:8.6367406845092773 3:37.310550689697266 \n0.25575933309211429 1:11 2:9.2112264633178711 3:39.516994476318359 \n0.19007596473311636 1:6 2:7.2175769805908203 3:54.498275756835938 \n0.19366109246467333 1:8 2:10.369484901428223 3:69.325935363769531 \n0.15635498985648152 1:10 2:16.048175811767578 3:95.221443176269531 \n0.10150400549173355 1:10 2:14.605493545532227 3:106.06716918945312 \n0.098335076122438303 1:8 2:12.143473625183105 3:112.81569671630859 \n0.063534177545219256 1:5 2:9.4803323745727539 3:118.50116729736328 \n0.02215912491164998 1:7 2:12.25776195526123 3:128.734130859375 \n0.025875505187539005 1:6 2:14.613714218139648 3:140.29666137695312 \n-0.0052135108147241815 1:7 2:19.043867111206055 3:225.49272155761719 \n-0.059069442938692096 1:6 2:19.78773307800293 3:231.11875915527344 \n-0.089462445360681514 1:8 2:28.346988677978516 3:241.32870483398438 \n-0.10479008747385865 1:7 2:24.860950469970703 3:251.49098205566406 \n-0.12180368821355086 1:7 2:21.557012557983398 3:267.78582763671875 \n-0.14370601062402635 1:7 2:21.208541870117188 3:273.47555541992188 \n-0.14248234839678409 1:9 2:28.764820098876953 3:288.347412109375 \n-0.18529222410305396 1:7 2:19.951900482177734 3:293.77984619140625 \n-0.18750921218093161 1:7 2:18.620828628540039 3:299.41299438476562 \n-0.24015277650870251 1:7 2:21.370153427124023 3:309.72268676757812 \n-0.26800024504106845 1:6 2:19.580867767333984 3:320.0592041015625 \n-0.30227351032859007 1:5 2:26.05396842956543 3:334.47540283203125 \n-0.41082037301302565 1:4 2:25.719423294067383 3:345.8082275390625 \n0.17280090701637194 1:3 2:1.779285192489624 3:5.4015288352966309 \n0.32022666970209651 1:6 2:1.8209899663925171 3:49.221939086914062 \n0.2780049016554863 1:9 2:7.7213492393493652 3:65.444534301757812 \n0.14180458424752235 1:8 2:8.2237892150878906 3:67.652488708496094 \n0.10933483617114459 1:4 2:3.876276969909668 3:69.858932495117188 \n0.12910884271203321 1:5 2:6.3044552803039551 3:81.48162841796875 \n0.12766337333203276 1:8 2:10.207954406738281 3:83.676963806152344 \n0.081789725771228117 1:4 2:5.1694130897521973 3:109.57247161865234 \n0.085808651957258092 1:12 2:18.275373458862305 3:117.06230163574219 \n0.024457485534250228 1:6 2:7.6221213340759277 3:123.83400726318359 \n-0.013536330703063537 1:5 2:15.193047523498535 3:209.36061096191406 \n-0.02204003576847352 1:8 2:21.610177993774414 3:216.10736083984375 \n-0.062345273598579526 1:3 2:9.1206226348876953 3:221.73341369628906 \n-0.096297485504618308 1:8 2:22.095771789550781 3:231.94334411621094 \n-0.14177092638350844 1:10 2:30.846170425415039 3:238.54350280761719 \n-0.17299613664946067 1:7 2:22.800189971923828 3:254.83834838867188 \n-0.19237035353574092 1:6 2:22.535478591918945 3:262.92559814453125 \n-0.20280648497028891 1:9 2:30.614259719848633 3:277.7974853515625 \n-0.25510782586974157 1:7 2:22.259571075439453 3:283.22991943359375 \n-0.27430253037998437 1:7 2:20.707292556762695 3:290.11233520507812 \n-0.26865970335218337 1:7 2:19.307041168212891 3:301.59225463867188 \n-0.2984039909203019 1:7 2:22.552583694458008 3:312.85250854492188 \n-0.42915585453544969 1:7 2:19.82551383972168 3:324.49545288085938 \n'
cOrange.orange
__pickleLoaderExampleTable
p52
(cOrange.data
Table
p53
g51
S'\x8a\x00\x00\x00\x00\x00\x00@@\x00\xb6\x97\x11?\x00\x8e\xc8\x81?\x00h\x8b\x90\xbc\x00\x00\x00\x00\xa1"\x00\x00\x00\x00\x00\x00\x00\x00\x00\x80@\x00\xe2\x96\x85?\x00\xe3O\x01@\x00\xda\xf7\x12\xbd\x00\x00\x00\x00\xa2"\x00\x00\x00\x00\x00\x00\x00\x00\x00\x00@\x00\xf0*\x8e?\x00\xab\xbe\xa8@\x00u\xb2\x8f\xbd\x00\x00\x00\x00\xa3"\x00\x00\x00\x00\x00\x00\x00\x00\x00\x80@\x00\xa6\xe7\x87?\x00\xff\xf9\xc8@\x00\xb7\xb4\xda\xbd\x00\x00\x00\x00\xa4"\x00\x00\x00\x00\x00\x00\x00\x00\x00\x00@\x00:;\x8e?\x00|\x96\x17A\x00\xd0F\x1e\xbe\x00\x00\x00\x00\xa5"\x00\x00\x00\x00\x00\x00\x00\x00\x00\x80@\x00n\xdd\xcd?\x00_\xd4\'A\x00A\xd4-\xbe\x00\x00\x00\x00\xa6"\x00\x00\x00\x00\x00\x00\x00\x00\x00\x80@\x00\x94\xcf\xde?\x00\xaf\xe67A\x004\x81b\xbe\x00\x00\x00\x00\xa7"\x00\x00\x00\x00\x00\x00\x00\x00\x00@@\x00\xd5#\x02@\x00C\nHA\x00@\xa3\x84\xbe\x00\x00\x00\x00\xa8"\x00\x00\x00\x00\x00\x00\x00\x00\x00@@\x00\x95\xf2\xf4?\x00x\xaa{A\x00\x07@l\xbe\x00\x00\x00\x00\xa9"\x00\x00\x00\x00\x00\x00\x00\x00\x00\x80@\x00\x9dE\x01@\x00$\xe4\x85A\x00\xae\xb7\x85\xbe\x00\x00\x00\x00\xaa"\x00\x00\x00\x00\x00\x00\x00\x00\x00@@\x00\xfd3\xf4?\x00\xb9\xf1\x8dA\x00V\xb6\x87\xbe\x00\x00\x00\x00\xab"\x00\x00\x00\x00\x00\x00\x00\x00\x00@@\x00]\xc9\xf7?\x00\xbb\xfe\x95A\x005~\x91\xbe\x00\x00\x00\x00\xac"\x00\x00\x00\x00\x00\x00\x00\x00\x00@@\x00\x18{\xe7?\x00\x81V\xc1A\x00\xeaB\xac\xbe\x00\x00\x00\x00\xad"\x00\x00\x00\x00\x00\x00\x00\x00\x00@@\x00\x96\x82\xe2?\x00nq\xc9A\x00\x12\x13\xac\xbe\x00\x00\x00\x00\xae"\x00\x00\x00\x00\x00\x00\x00\x00\x00\x00@\x00\xb1\xd6\xb1?\x00/C\xe3A\x00]\xf9\xc4\xbe\x00\x00\x00\x00\xaf"\x00\x00\x00\x00\x00\x00\x00\x00\x00@@\x00>C\x17@\x00\x9d\n0B\x00d\x06&\xbf\x00\x00\x00\x00\xb8"\x00\x00\x00\x00\x00\x00\x00\x00\x00\x80@\x00.\xc8-@\x00\xd0\x134B\x00\xcf\xa3\x1e\xbf\x00\x00\x00\x00\xb9"\x00\x00\x00\x00\x00\x00\x00\x00\x00@@\x00b15@\x00\xcf\x08AB\x00D\xf8+\xbf\x00\x00\x00\x00\xba"\x00\x00\x00\x00\x00\x00\x00\x00\x00\x80@\x00\xff\x7fG@\x00\xea\x10EB\x00"\xfb4\xbf\x00\x00\x00\x00\xbb"\x00\x00\x00\x00\x00\x00\x00\x00\x00\x00@\x00\x08?\x14@\x00W\x14IB\x00~\xc78\xbf\x00\x00\x00\x00\xbc"\x00\x00\x00\x00\x00\x00\x00\x00\x00\x80@\x00\xa7~?@\x00\xb7\x19MB\x00\xca\xa86\xbf\x00\x00\x00\x00\xbd"\x00\x00\x00\x00\x00\x00\x00\x00\x00@@\x00W\x80\x81@\x00\xae\xceYB\x00\x84\xf5S\xbf\x00\x00\x00\x00\xbe"\x00\x00\x00\x00\x00\x00\x00\x00\x00@@\x00.\x83\xadE\x009\xa79A\x00\xfe\xb41\xbd\x00\x00\x00\x00\xfb"\x00\x00\x00\x00\x00\x00\x00\x00\x00\x80@\x002>\x18F\x00L\x8e\xa4A\x00\x89\xe6\x96\xbd\x00\x00\x00\x00\xfc"\x00\x00\x00\x00\x00\x00\x00\x00\x00@@\x00v\xe5\x0bF\x005a\x11B\x00\xcd\x02\xed\xbd\x00\x00\x00\x00\xfd"\x00\x00\x00\x00\x00\x00\x00\x00\x00\xc0@\x00\x8c[\xa0F\x00*\xb95B\x00\x8e\xea\x14\xbe\x00\x00\x00\x00\xfe"\x00\x00\x00\x00\x00\x00\x00\x00\x00\x80@\x00\x85\x07\x80F\x00#$GB\x008\xdb\\\xbe\x00\x00\x00\x00\xff"\x00\x00\x00\x00\x00\x00\x00\x00\x00\x00A\x00\xdc\xad\xd4F\x00LMPB\x00\xda\xa9y\xbe\x00\x00\x00\x00\x00#\x00\x00\x00\x00\x00\x00\x00\x00\x00\xa0@\x00\xfa\x96\x90F\x00^DtB\x00X\xca\x92\xbe\x00\x00\x00\x00\x01#\x00\x00\x00\x00\x00\x00\x00\x00\x00\x80@\x00\xeb\xbd\x9aF\x00\xa4P\x8cB\x00\xf9\xf6\x9e\xbe\x00\x00\x00\x00\x02#\x00\x00\x00\x00\x00\x00\x00\x00\x00\xa0@\x00W\xdd\x9fF\x00\x9f\xa8\x97B\x00\x92\\\x8e\xbe\x00\x00\x00\x00\x03#\x00\x00\x00\x00\x00\x00\x00\x00\x00\xa0@\x00\'u\xb1F\x00\x0b\xa2\xa9B\x00\xd1\x03\x9f\xbe\x00\x00\x00\x00\x04#\x00\x00\x00\x00\x00\x00\x00\x00\x00\xa0@\x00\xf0\xba\xeeF\x00o\xbf\xbbB\x00cG\xab\xbe\x00\x00\x00\x00\x05#\x00\x00\x00\x00\x00\x00\x00\x00\x00\xc0@\x00[\x9c\x08G\x00\x85\xec\xc6B\x00\xf45\xbb\xbe\x00\x00\x00\x00\x06#\x00\x00\x00\x00\x00\x00\x00\x00\x00\xa0@\x00\xda\x84\x17G\x00\x9a\x9a\x15C\x00\xad\xbd\x1b\xbf\x00\x00\x00\x00\x10#\x00\x00\x00\x00\x00\x00\x00\x00\x00\xc0@\x00\x13r\x12G\x00\xf6\x86\x1eC\x00\xbf\xd2\x1d\xbf\x00\x00\x00\x00\x11#\x00\x00\x00\x00\x00\x00\x00\x00\x00\xa0@\x00\x98]\x10G\x00\xf2\xfa"C\x00\xa5\xf8$\xbf\x00\x00\x00\x00\x12#\x00\x00\x00\x00\x00\x00\x00\x00\x00\xe0@\x00\x9c\xfcXG\x00\xe7-%C\x00k\xd8+\xbf\x00\x00\x00\x00\x13#\x00\x00\x00\x00\x00\x00\x00\x00\x00\xa0@\x00o\xd0\x1cG\x00!\x18.C\x00cE5\xbf\x00\x00\x00\x00\x14#\x00\x00\x00\x00\x00\x00\x00\x00\x00\xa0@\x00\x0e\xe6?G\x00Z\x157C\x00\xef\x1f7\xbf\x00\x00\x00\x00\x15#\x00\x00\x00\x00\x00\x00\x00\x00\x00\xa0@\x00\xa9\xb7PG\x00\x0c\r@C\x00\xa5\x9f8\xbf\x00\x00\x00\x00\x16#\x00\x00\x00\x00\x00\x00\x00\x00\x00\x80@\x00F\xa26G\x009mDC\x00\x00\xa9=\xbf\x00\x00\x00\x00\x17#\x00\x00\x00\x00\x00\x00\x00\x00\x00\xc0@\x00P\x8eNG\x00\xcc\x95FC\x00\x97SZ\xbf\x00\x00\x00\x00\x18#\x00\x00\x00\x00\x00\x00\x00\x00\x00 A\x00\x06\xeb\xbc@\x009\xa79A\x00)\xb2\x96\xbc\x00\x00\x00\x00\x19#\x00\x00\x00\x00\x00\x00\x00\x00\x00\xa0@\x00\xb3sp@\x009\xbd\x9bA\x00\xf7\xf5\xad\xbd\x00\x00\x00\x00\x1a#\x00\x00\x00\x00\x00\x00\x00\x00\x00\xc0@\x00\x0f\x06\xa3@\x00\x0c\xd2\xdaA\x00e\xa8\xea\xbd\x00\x00\x00\x00\x1b#\x00\x00\x00\x00\x00\x00\x00\x00\x00\xa0@\x00\xc15\xa2@\x00\xfc\xa7\xfdA\x00\xb6\x82F\xbe\x00\x00\x00\x00\x1c#\x00\x00\x00\x00\x00\x00\x00\x00\x00\xc0@\x00\x13\xae\xcd@\x00\xdev\x10B\x00-{B\xbe\x00\x00\x00\x00\x1d#\x00\x00\x00\x00\x00\x00\x00\x00\x00\x00A\x00h\xdd\tA\x00\xc8\xd34B\x00\xbelk\xbe\x00\x00\x00\x00\x1e#\x00\x00\x00\x00\x00\x00\x00\x00\x00\xc0@\x00LI\xef@\x00\xbd\x83KB\x00\xb7(s\xbe\x00\x00\x00\x00\x1f#\x00\x00\x00\x00\x00\x00\x00\x00\x00\xc0@\x00D\x01\xf3@\x00\xe0P]B\x00\xb0\xfeo\xbe\x00\x00\x00\x00 #\x00\x00\x00\x00\x00\x00\x00\x00\x00\xc0@\x00\xb4\xd3\x0cA\x00\xe1\xb6|B\x00\x00\x8f\x88\xbe\x00\x00\x00\x00!#\x00\x00\x00\x00\x00\x00\x00\x00\x00\xc0@\x00HP\xed@\x00\x19,\x8eB\x00\xb6H\xa2\xbe\x00\x00\x00\x00"#\x00\x00\x00\x00\x00\x00\x00\x00\x00\xc0@\x00\x90\x1e\xd8@\x00t\xc0\x9dB\x00\x11\xc7\xa2\xbe\x00\x00\x00\x00##\x00\x00\x00\x00\x00\x00\x00\x00\x00\xc0@\x00\xc97\x15A\x00\xfeT\xadB\x00~\x8e\xaf\xbe\x00\x00\x00\x00$#\x00\x00\x00\x00\x00\x00\x00\x00\x00\x80@\x00\xc3\x0c\xb9@\x0073\xb6B\x00\xa3\xac\xbf\xbe\x00\x00\x00\x00%#\x00\x00\x00\x00\x00\x00\x00\x00\x00\x80@\x00\xcd\xa5,A\x00mr\xfaB\x00\x01\xa1!\xbf\x00\x00\x00\x00-#\x00\x00\x00\x00\x00\x00\x00\x00\x00\xe0@\x00\xa9\xbf\x87A\x00W\xd8\xfeB\x00\x1b\xb9\x1e\xbf\x00\x00\x00\x00.#\x00\x00\x00\x00\x00\x00\x00\x00\x00\xc0@\x00\xee.@A\x00\xec\xc4\x03C\x00=)+\xbf\x00\x00\x00\x00/#\x00\x00\x00\x00\x00\x00\x00\x00\x00\xa0@\x00D\xf7[A\x00\x06\x85\x0bC\x00\xabB+\xbf\x00\x00\x00\x000#\x00\x00\x00\x00\x00\x00\x00\x00\x00\xc0@\x00m\xd4\x80A\x00\xb8|\x14C\x00\n\xba9\xbf\x00\x00\x00\x001#\x00\x00\x00\x00\x00\x00\x00\x00\x00\xc0@\x00D\xb5MA\x00\xb5~\x15C\x00\x8d]6\xbf\x00\x00\x00\x002#\x00\x00\x00\x00\x00\x00\x00\x00\x00\xc0@\x00X\x98\x1cA\x00\xe2\xde\x19C\x00\xf2\x97:\xbf\x00\x00\x00\x003#\x00\x00\x00\x00\x00\x00\x00\x00\x00\xa0@\x00\x8cWSA\x00D\x15&C\x00\xcc\xd0@\xbf\x00\x00\x00\x004#\x00\x00\x00\x00\x00\x00\x00\x00\x00\x80@\x00T\x871A\x00\x81J)C\x00\xb6+L\xbf\x00\x00\x00\x005#\x00\x00\x00\x00\x00\x00\x00\x00\x00\xa0@\x00\'\x0ejA\x00\x17\xba.C\x00\xfb\x06j\xbf\x00\x00\x00\x006#\x00\x00\x00\x00\x00\x00\x00\x00\x00@A\x00-\x19GG\x00\xc8\xc8\xe7A\x002\x84M\xbd\x00\x00\x00\x00\xeb#\x00\x00\x00\x00\x00\x00\x00\x00\x00`A\x00.]oG\x00\tb"B\x00\xf6\xb4\x03\xbe\x00\x00\x00\x00\xec#\x00\x00\x00\x00\x00\x00\x00\x00\x00\xe0@\x00G|\x15G\x00PAUB\x00_`&\xbe\x00\x00\x00\x00\xed#\x00\x00\x00\x00\x00\x00\x00\x00\x00\xe0@\x00R\x14\x1eG\x00r\xbd\x88B\x008\x12H\xbe\x00\x00\x00\x00\xee#\x00\x00\x00\x00\x00\x00\x00\x00\x00\x00A\x00\xdcS\x1cG\x00\xf6\xde\x98B\x00b\xbf\'\xbe\x00\x00\x00\x00\xef#\x00\x00\x00\x00\x00\x00\x00\x00\x000A\x00r\xf3\x80G\x005^\xa6B\x00\x1b*V\xbe\x00\x00\x00\x00\xf0#\x00\x00\x00\x00\x00\x00\x00\x00\x00\xc0@\x00j\xfe\x1cG\x00*\xbd\xb1B\x00\xdaYt\xbe\x00\x00\x00\x00\xf1#\x00\x00\x00\x00\x00\x00\x00\x00\x00PA\x00&[\xa1G\x00 \x9c\xbdB\x00\x15\x8ep\xbe\x00\x00\x00\x00\xf2#\x00\x00\x00\x00\x00\x00\x00\x00\x00 A\x00\xca\xcb\xa0G\x00vc\xd4B\x00\xd71\x96\xbe\x00\x00\x00\x00\xf3#\x00\x00\x00\x00\x00\x00\x00\x00\x00@A\x00`\x95\x1cH\x00\x9ep\x0eC\x00\xf3\x8e\xbb\xbe\x00\x00\x00\x00\xf4#\x00\x00\x00\x00\x00\x00\x00\x00\x00\x00A\x00WE\x98G\x00$\xadLC\x00\xd4\x99\x17\xbf\x00\x00\x00\x00\xf9#\x00\x00\x00\x00\x00\x00\x00\x00\x00 A\x00\x96\x9d\xbaG\x00\xd9\x19_C\x006\xe8\x1f\xbf\x00\x00\x00\x00\xfb#\x00\x00\x00\x00\x00\x00\x00\x00\x00\x00A\x00\xdei\xc4G\x00\xe3JaC\x00A\xd6\'\xbf\x00\x00\x00\x00\xfc#\x00\x00\x00\x00\x00\x00\x00\x00\x00\x98A\x00\xd8\xf6NH\x00\xbd\xc5lC\x00\xd4e1\xbf\x00\x00\x00\x00\xfd#\x00\x00\x00\x00\x00\x00\x00\x00\x00\x00A\x00\xe9\xe0\x98G\x00#\xb2tC\x00\xd6\xc5=\xbf\x00\x00\x00\x00\xfe#\x00\x00\x00\x00\x00\x00\x00\x00\x00\xe0@\x00|X\xc7G\x00^+\x80C\x00\xa5ND\xbf\x00\x00\x00\x00\xff#\x00\x00\x00\x00\x00\x00\x00\x00\x00\x00A\x00\xcc\xde\x00H\x001C\x87C\x00u\xc9D\xbf\x00\x00\x00\x00\x00$\x00\x00\x00\x00\x00\x00\x00\x00\x00\xa0@\x00\x97\x05\xbbG\x00OL\x8cC\x00\x8d\'J\xbf\x00\x00\x00\x00\x01$\x00\x00\x00\x00\x00\x00\x00\x00\x00@@\x00h50G\x00\xc9\x8e\x9dC\x00\xe1E_\xbf\x00\x00\x00\x00\x02$\x00\x00\x00\x00\x00\x00\x00\x00\x00\x00A\x00\x08Z\x01H\x00\x01\xd4\xa3C\x00\xfd\x11Z\xbf\x00\x00\x00\x00\x03$\x00\x00\x00\x00\x00\x00\x00\x00\x00\x80@\x00\xb7\x08fG\x00jT\xa4C\x00\xe8Jd\xbf\x00\x00\x00\x00\x04$\x00\x00\x00\x00\x00\x00\x00\x00\x00\x80@\x00\xa2\xe6\xb6G\x00n\xb0\xadC\x00\xb6\xd6k\xbf\x00\x00\x00\x00\x05$\x00\x00\x00\x00\x00\x00\x00\x00\x00\xc0@\x00\xfe\xf6\xd0G\x00\xfbm\xb0C\x00p\x98t\xbf\x00\x00\x00\x00\x06$\x00\x00\x00\x00\x00\x00\x00\x00\x00@@\x00\x84tLG\x00\xd2\xee\xb0C\x00\xc7F\x80\xbf\x00\x00\x00\x00\x07$\x00\x00\x00\x00\x00\x00\x00\x00\x00@@\x00\xf1.sG\x00\x0e\x89\xb2C\x00o\x9e\x8a\xbf\x00\x00\x00\x00\x08$\x00\x00\x00\x00\x00\x00\x00\x00\x00@@\x00\xdaf9@\x00uf\x05A\x00\x8bz\x97\xbd\x00\x00\x00\x00\t$\x00\x00\x00\x00\x00\x00\x00\x00\x00\xe0@\x00\x170\nA\x00\x01>\x15B\x006\x16~\xbd\x00\x00\x00\x00\n$\x00\x00\x00\x00\x00\x00\x00\x00\x000A\x00/a\x13A\x00g\x11\x1eB\x00\xf7[\x0b\xbe\x00\x00\x00\x00\x0b$\x00\x00\x00\x00\x00\x00\x00\x00\x00\xc0@\x00d\xf6\xe6@\x00<\xfeYB\x00rm8\xbe\x00\x00\x00\x00\x0c$\x00\x00\x00\x00\x00\x00\x00\x00\x00\x00A\x00i\xe9%A\x00\xe1\xa6\x8aB\x00y\x1fG\xbe\x00\x00\x00\x00\r$\x00\x00\x00\x00\x00\x00\x00\x00\x00 A\x00\xaab\x80A\x00aq\xbeB\x00\xe7\x00q\xbe\x00\x00\x00\x00\x0e$\x00\x00\x00\x00\x00\x00\x00\x00\x00 A\x00\x1a\xb0iA\x00d"\xd4B\x00\x97t\x94\xbe\x00\x00\x00\x00\x0f$\x00\x00\x00\x00\x00\x00\x00\x00\x00\x00A\x00\xabKBA\x00\xa3\xa1\xe1B\x00j3\x96\xbe\x00\x00\x00\x00\x10$\x00\x00\x00\x00\x00\x00\x00\x00\x00\xa0@\x00q\xaf\x17A\x00\x99\x00\xedB\x00"\x00\xa8\xbe\x00\x00\x00\x00\x11$\x00\x00\x00\x00\x00\x00\x00\x00\x00\xe0@\x00\xcb\x1fDA\x00\xf0\xbb\x00C\x00\xc6\x8b\xbd\xbe\x00\x00\x00\x00\x12$\x00\x00\x00\x00\x00\x00\x00\x00\x00\xc0@\x00\xc6\xd1iA\x00\xf2K\x0cC\x00\x17\xd7\xc8\xbe\x00\x00\x00\x00\x14$\x00\x00\x00\x00\x00\x00\x00\x00\x00\xe0@\x00\xd7Y\x98A\x00#~aC\x00.\xc6\x18\xbf\x00\x00\x00\x00\x1a$\x00\x00\x00\x00\x00\x00\x00\x00\x00\xc0@\x00GM\x9eA\x00g\x1egC\x00\x9c\xc2&\xbf\x00\x00\x00\x00\x1b$\x00\x00\x00\x00\x00\x00\x00\x00\x00\x00A\x00\xa2\xc6\xe2A\x00&TqC\x00\x14Z.\xbf\x00\x00\x00\x00\x1c$\x00\x00\x00\x00\x00\x00\x00\x00\x00\xe0@\x00:\xe3\xc6A\x00\xb1}{C\x00\xb7c2\xbf\x00\x00\x00\x00\x1d$\x00\x00\x00\x00\x00\x00\x00\x00\x00\xe0@\x00\xc3t\xacA\x00\x96\xe4\x85C\x00*\x8b6\xbf\x00\x00\x00\x00\x1e$\x00\x00\x00\x00\x00\x00\x00\x00\x00\xe0@\x00\x18\xab\xa9A\x00\xdf\xbc\x88C\x00o,<\xbf\x00\x00\x00\x00\x1f$\x00\x00\x00\x00\x00\x00\x00\x00\x00\x10A\x00Z\x1e\xe6A\x00x,\x90C\x00\xf9\xf5;\xbf\x00\x00\x00\x00 $\x00\x00\x00\x00\x00\x00\x00\x00\x00\xe0@\x00~\x9d\x9fA\x00\xd2\xe3\x92C\x00\x07\xf0F\xbf\x00\x00\x00\x00!$\x00\x00\x00\x00\x00\x00\x00\x00\x00\xe0@\x00u\xf7\x94A\x00\xdd\xb4\x95C\x00P\x8cL\xbf\x00\x00\x00\x00"$\x00\x00\x00\x00\x00\x00\x00\x00\x00\xe0@\x00\x13\xf6\xaaA\x00\x81\xdc\x9aC\x00\x8d$U\xbf\x00\x00\x00\x00#$\x00\x00\x00\x00\x00\x00\x00\x00\x00\xc0@\x00\x9e\xa5\x9cA\x00\x94\x07\xa0C\x00\xfa\x08\\\xbf\x00\x00\x00\x00$$\x00\x00\x00\x00\x00\x00\x00\x00\x00\xa0@\x00\x87n\xd0A\x00\xda<\xa7C\x00\x0e\xbed\xbf\x00\x00\x00\x00%$\x00\x00\x00\x00\x00\x00\x00\x00\x00\x80@\x00a\xc1\xcdA\x00t\xe7\xacC\x00\xe3S\x80\xbf\x00\x00\x00\x00&$\x00\x00\x00\x00\x00\x00\x00\x00\x00@@\x00\x9e\xbf\xe3?\x00S\xd9\xac@\x00\xd5y4\xbd\x00\x00\x00\x00\'$\x00\x00\x00\x00\x00\x00\x00\x00\x00\xc0@\x003\x16\xe9?\x00D\xe3DB\x00\x85\x89\xa0\xbd\x00\x00\x00\x00($\x00\x00\x00\x00\x00\x00\x00\x00\x00\x10A\x00K\x15\xf7@\x00\x9a\xe3\x82B\x00\xa9J\xdb\xbd\x00\x00\x00\x00)$\x00\x00\x00\x00\x00\x00\x00\x00\x00\x00A\x00\xa4\x94\x03A\x00\x13N\x87B\x00\x08\xafm\xbe\x00\x00\x00\x00*$\x00\x00\x00\x00\x00\x00\x00\x00\x00\x80@\x00\xec\x14x@\x00\xc6\xb7\x8bB\x00\x90\x85\x90\xbe\x00\x00\x00\x00+$\x00\x00\x00\x00\x00\x00\x00\x00\x00\xa0@\x00\x19\xbe\xc9@\x00\x98\xf6\xa2B\x00\x18\xce\x85\xbe\x00\x00\x00\x00,$\x00\x00\x00\x00\x00\x00\x00\x00\x00\x00A\x00\xc8S#A\x00\x9bZ\xa7B\x009\xec\x86\xbe\x00\x00\x00\x00-$\x00\x00\x00\x00\x00\x00\x00\x00\x00\x80@\x00\xd5k\xa5@\x00\x1b%\xdbB\x00\xa8\xc7\x9e\xbe\x00\x00\x00\x00.$\x00\x00\x00\x00\x00\x00\x00\x00\x00@A\x00\xf73\x92A\x00\xe6\x1f\xeaB\x00O\x94\x9c\xbe\x00\x00\x00\x00/$\x00\x00\x00\x00\x00\x00\x00\x00\x00\xc0@\x00k\xe8\xf3@\x00\x03\xab\xf7B\x00;\xfe\xbb\xbe\x00\x00\x00\x000$\x00\x00\x00\x00\x00\x00\x00\x00\x00\xa0@\x00\xb9\x16sA\x00Q\\QC\x000\xf6\x1a\xbf\x00\x00\x00\x008$\x00\x00\x00\x00\x00\x00\x00\x00\x00\x00A\x00\xa5\xe1\xacA\x00|\x1bXC\x00\x86\x1e\x1d\xbf\x00\x00\x00\x009$\x00\x00\x00\x00\x00\x00\x00\x00\x00@@\x00\x12\xee\x11A\x00\xc1\xbb]C\x00vR\'\xbf\x00\x00\x00\x00:$\x00\x00\x00\x00\x00\x00\x00\x00\x00\x00A\x00$\xc4\xb0A\x00\x7f\xf1gC\x00\x91G0\xbf\x00\x00\x00\x00;$\x00\x00\x00\x00\x00\x00\x00\x00\x00 A\x00\xf5\xc4\xf6A\x00#\x8bnC\x00\x86\xaf;\xbf\x00\x00\x00\x00<$\x00\x00\x00\x00\x00\x00\x00\x00\x00\xe0@\x00\xcaf\xb6A\x00\x9e\xd6~C\x00\x08\xccC\xbf\x00\x00\x00\x00=$\x00\x00\x00\x00\x00\x00\x00\x00\x00\xc0@\x00\xa9H\xb4A\x00zv\x83C\x00\xa4\xabH\xbf\x00\x00\x00\x00>$\x00\x00\x00\x00\x00\x00\x00\x00\x00\x10A\x00\x01\xea\xf4A\x00\x14\xe6\x8aC\x00\x9bpK\xbf\x00\x00\x00\x00?$\x00\x00\x00\x00\x00\x00\x00\x00\x00\xe0@\x00\x9a\x13\xb2A\x00n\x9d\x8dC\x00\xca\xc5X\xbf\x00\x00\x00\x00@$\x00\x00\x00\x00\x00\x00\x00\x00\x00\xe0@\x00\x89\xa8\xa5A\x00a\x0e\x91C\x00&\xc7]\xbf\x00\x00\x00\x00A$\x00\x00\x00\x00\x00\x00\x00\x00\x00\xe0@\x00\xd2t\x9aA\x00\xcf\xcb\x96C\x00\x90\xbc_\xbf\x00\x00\x00\x00B$\x00\x00\x00\x00\x00\x00\x00\x00\x00\xe0@\x00\xb1k\xb4A\x00\x1fm\x9cC\x00\xac\xffc\xbf\x00\x00\x00\x00C$\x00\x00\x00\x00\x00\x00\x00\x00\x00\xe0@\x00\xa7\x9a\x9eA\x00k?\xa2C\x00?\xa9\x82\xbf\x00\x00\x00\x00D$\x00\x00\x00\x00\x00\x00'
NtRp54
(dp55
S'domain'
p56
g51
sg14
NsbNNtRp57
(dp58
S'kernel_type'
p59
I2
sg56
g51
sS'kernel_func'
p60
NsS'computes_probabilities'
p61
I0
sS'n_SV'
p62
NsS'coef'
p63
cOrange.core
FloatListList
p64
(tRp65
cOrange.core
FloatList
p66
(tRp67
F0.28879114985466003
aF0.26126319169998169
aF0.22060872614383698
aF0.20735271275043488
aF0.20384815335273743
aF0.17897915840148926
aF0.020938413217663765
aF0.11063489317893982
aF0.13222014904022217
aF0.059183318167924881
aF0.045434262603521347
aF0.067542754113674164
aF0.033552460372447968
aF0.035561162978410721
aF0.0068931449204683304
aF-0.054256368428468704
aF-0.0090706776827573776
aF-0.037300113588571548
aF-0.1005980372428894
aF-0.11484639346599579
aF-0.10308779031038284
aF-0.23586550354957581
aF0.34832146763801575
aF0.31779775023460388
aF0.27589097619056702
aF0.24631233513355255
aF0.17608934640884399
aF0.14803831279277802
aF0.10460718721151352
aF0.081104062497615814
aF0.11320672184228897
aF0.081060513854026794
aF0.057172790169715881
aF0.026100330054759979
aF-0.016888517886400223
aF-0.024590244516730309
aF-0.052915263921022415
aF-0.079358607530593872
aF-0.11683851480484009
aF-0.12423974275588989
aF-0.12992399930953979
aF-0.14950571954250336
aF-0.26096537709236145
aF0.37323012948036194
aF0.3049221932888031
aF0.27714115381240845
aF0.19789755344390869
aF0.1933099776506424
aF0.16159974038600922
aF0.15366321802139282
aF0.031763400882482529
aF0.12423974275588989
aF0.074478894472122192
aF0.070942237973213196
aF0.048267576843500137
aF0.01738332211971283
aF-0.040157794952392578
aF-0.028357099741697311
aF-0.077080413699150085
aF-0.08561599999666214
aF-0.13325501978397369
aF-0.12038828432559967
aF-0.13705278933048248
aF-0.16159974038600922
aF-0.20573344826698303
aF-0.32248687744140625
aF0.34157469868659973
aF0.26284006237983704
aF0.22856608033180237
aF0.19623023271560669
aF0.22754323482513428
aF0.18240146338939667
aF0.15312233567237854
aF0.15639592707157135
aF0.098156079649925232
aF0.025400463491678238
aF-0.00057394843315705657
aF-0.033329807221889496
aF-0.06408720463514328
aF-0.10150400549173355
aF-0.14973193407058716
aF-0.17526909708976746
aF-0.17708195745944977
aF-0.19789755344390869
aF-0.28037038445472717
aF-0.26012697815895081
aF-0.30040872097015381
aF-0.32960602641105652
aF-0.36368164420127869
aF-0.41068029403686523
aF-0.49126392602920532
aF0.29569840431213379
aF0.32442787289619446
aF0.25575932860374451
aF0.19007596373558044
aF0.19366109371185303
aF0.15635499358177185
aF0.10150400549173355
aF0.09833507239818573
aF0.063534177839756012
aF0.022159125655889511
aF0.025875505059957504
aF-0.0052135107107460499
aF-0.059069443494081497
aF-0.089462444186210632
aF-0.10479008406400681
aF-0.12180368602275848
aF-0.14370600879192352
aF-0.14248235523700714
aF-0.18529222905635834
aF-0.1875092089176178
aF-0.24015277624130249
aF-0.26800024509429932
aF-0.30227351188659668
aF-0.4108203649520874
aF0.17280091345310211
aF0.32022666931152344
aF0.27800491452217102
aF0.14180459082126617
aF0.10933483392000198
aF0.12910884618759155
aF0.12766337394714355
aF0.08178972452878952
aF0.085808649659156799
aF0.024457486346364021
aF-0.013536330312490463
aF-0.022040035575628281
aF-0.062345273792743683
aF-0.096297487616539001
aF-0.14177092909812927
aF-0.17299613356590271
aF-0.19237035512924194
aF-0.20280648767948151
aF-0.2551078200340271
aF-0.27430254220962524
aF-0.26865971088409424
aF-0.29840397834777832
aF-0.4291558563709259
a(dba(dbsS'support_vectors'
p68
g54
sS'svm_type'
p69
I3
sS'class_var'
p70
g48
sS'examples'
p71
NsS'rho'
p72
g66
(tRp73
F0.49158582091331482
a(dbsS'prob_b'
p74
NsS'prob_a'
p75
g66
(tRp76
F0.088568814098834991
a(dbsbtRp77
(dp78
S'_SVMClassifier__wrapped'
p79
g57
sS'name'
p80
S'SVM Regression'
p81
sb.