cOrange.classification.svm
SVMClassifier
p1
(cOrange.classification.svm
_SVMClassifier
p2
(cOrange.orange
__pickleLoaderDomain
p3
(cOrange.data
Domain
p4
cOrange.core
VarList
p5
(tRp6
cOrange.orange
__pickleLoaderVariable
p7
(cOrange.feature
Continuous
p8
(dp9
S'source_variable'
p10
NsS'ordered'
p11
I1
sS'var_type'
p12
I2
sS'scientific_format'
p13
I0
sS'random_generator'
p14
NsS'distributed'
p15
I0
sS'number_of_decimals'
p16
I10
sS'end_value'
p17
F0
sS'step_value'
p18
F-1
sS'default_meta_id'
p19
I0
sS'start_value'
p20
F-1
sS'attributes'
p21
(dp22
sS'adjust_decimals'
p23
I1
sS'name'
p24
S'Disparity Norm'
p25
stRp26
(dp27
S'get_value_from'
p28
Nsbag7
(g8
(dp29
g10
Nsg11
I1
sg12
I2
sg13
I0
sg14
Nsg15
I0
sg16
I4
sg17
F0
sg18
F-1
sg19
I0
sg20
F-1
sS'attributes'
p30
(dp31
sg23
I1
sS'name'
p32
S'Percent Damage Norm'
p33
stRp34
(dp35
g28
Nsbag7
(g8
(dp36
g10
Nsg11
I1
sg12
I2
sg13
I0
sg14
Nsg15
I0
sg16
I10
sg17
F0
sg18
F-1
sg19
I0
sg20
F-1
sS'attributes'
p37
(dp38
sg23
I1
sS'name'
p39
S'Goal Arrival Delay Norm'
p40
stRp41
(dp42
g28
Nsba(dbcOrange.orange
__pickleLoaderEnumVariable
p43
(cOrange.feature
Discrete
p44
(dp45
g10
Nsg11
I0
sS'name'
p46
S'T_50'
p47
sg12
I1
sg14
Nsg15
I0
sS'values'
p48
cOrange.core
StringList
p49
(tRp50
S'FALSE'
aS'TRUE'
a(dbsS'attributes'
p51
(dp52
sg19
I0
sS'base_value'
p53
I-1
stRp54
(dp55
g28
Nsbg5
(tRp56
(db(dp57
I-7
g7
(g8
(dp58
g10
Nsg11
I1
sg12
I2
sg13
I0
sg14
Nsg15
I0
sg16
I10
sg17
F0
sg18
F-1
sg19
I-5
sg20
F-1
sS'attributes'
p59
(dp60
sg23
I1
sS'name'
p61
S'Trust Value Norm'
p62
stRp63
(dp64
g28
Nsbs(dtRp65
(dbS'svm_type c_svc\nkernel_type rbf\ngamma 0.23569999635219574\nnr_class 2\ntotal_sv 37\nrho 1.9631558437058665\nlabel 1 0\nprobA -2.2443034525428658\nprobB -0.062201313499920009\nnr_sv 18 19\nSV\n8.1524338477914249 1:0.0069212396629154682 2:0.26780000329017639 3:0.63226652145385742 \n36.75 1:0.018111526966094971 2:0.44369998574256897 3:0.48188489675521851 \n36.75 1:0.024721642956137657 2:0.42899999022483826 3:0.50573080778121948 \n36.75 1:0.048219937831163406 2:0.73570001125335693 3:0.26030603051185608 \n36.75 1:0.11667279899120331 2:0.56400001049041748 3:0.38287970423698425 \n23.401622624856618 1:0.12327740341424942 2:0.22640000283718109 3:0.58388924598693848 \n36.75 1:0.14242748916149139 2:0.27939999103546143 3:0.54500323534011841 \n36.75 1:0.16602221131324768 2:0.35890001058578491 3:0.52129232883453369 \n36.75 1:0.19440253078937531 2:0.31259998679161072 3:0.49834313988685608 \n36.75 1:0.21510830521583557 2:0.29240000247955322 3:0.50335693359375 \n36.75 1:0.22356414794921875 2:0.63749998807907104 3:0.1450905054807663 \n36.75 1:0.22622393071651459 2:0.34189999103546143 3:0.49526071548461914 \n36.75 1:0.23402056097984314 2:0.1177000030875206 3:0.7031712532043457 \n36.75 1:0.23606765270233154 2:0.36779999732971191 3:0.4310603141784668 \n36.75 1:0.24603863060474396 2:0.59670001268386841 3:0.17351712286472321 \n36.75 1:0.24667003750801086 2:0.24510000646114349 3:0.54637652635574341 \n36.75 1:0.31382682919502258 2:0.30570000410079956 3:0.42741382122039795 \n36.75 1:0.36961111426353455 2:0.31020000576972961 3:0.34197229146957397 \n-1.6608254323490583 1:0.018495470285415649 2:0.46880000829696655 3:0.63738149404525757 \n-36.75 1:0.096582405269145966 2:0.56319999694824219 3:0.44915696978569031 \n-36.75 1:0.099656373262405396 2:0.6875 3:0.33727234601974487 \n-15.449249019616778 1:0.11184074729681015 2:0.81690001487731934 3:0.22468505799770355 \n-36.75 1:0.12748533487319946 2:0.17360000312328339 3:0.78979820013046265 \n-36.75 1:0.1369493156671524 2:0.56040000915527344 3:0.39802625775337219 \n-36.75 1:0.15714339911937714 2:0.24940000474452972 3:0.68177115917205811 \n-36.75 1:0.17096041142940521 2:0.5503000020980835 3:0.36470267176628113 \n-36.75 1:0.17364315688610077 2:0.2994999885559082 3:0.62836146354675293 \n-36.75 1:0.19894769787788391 2:0.62040001153945923 3:0.28730639815330505 \n-36.75 1:0.22672635316848755 2:0.46990001201629639 3:0.40532886981964111 \n-36.75 1:0.25295266509056091 2:0.49750000238418579 3:0.3406539261341095 \n-36.75 1:0.26169633865356445 2:0.16019999980926514 3:0.66690146923065186 \n-36.75 1:0.27369633316993713 2:0.42320001125335693 3:0.47929450869560242 \n-36.75 1:0.28317934274673462 2:0.27059999108314514 3:0.59774446487426758 \n-36.75 1:0.29648640751838684 2:0.63690000772476196 3:0.24959754943847656 \n-36.75 1:0.29828014969825745 2:0.14350000023841858 3:0.6567348837852478 \n-36.75 1:0.32244119048118591 2:0.37850001454353333 3:0.40181198716163635 \n-14.443982020682224 1:0.36763933300971985 2:0.095299996435642242 3:0.69209057092666626 \n'
cOrange.orange
__pickleLoaderExampleTable
p66
(cOrange.data
Table
p67
g65
S'%\x00\x00\x00\x00\x91\xcb\xe2;\x00\x15\x1d\x89>\x008\xdc!?@\x01\x01\x00\x00\x00\x9a(\x00\x00\x00\x00\x00\x00\xf9\xff\xff\xff\x02\x00\xd1\xf9\x12?\x00\xa0^\x94<\x00\xa5,\xe3>\x00\x9e\xb9\xf6>@\x01\x01\x00\x00\x00\x14+\x00\x00\x00\x00\x00\x00\xf9\xff\xff\xff\x02\x004\x90\x0e?\x00\x0b\x85\xca<\x00\xe3\xa5\xdb>\x00\x93w\x01?@\x01\x01\x00\x00\x00\xa2+\x00\x00\x00\x00\x00\x00\xf9\xff\xff\xff\x02\x00[\xab\x0c?\x00E\x82E=\x00\xd6V<?\x00\xd5F\x85>@\x01\x01\x00\x00\x008(\x00\x00\x00\x00\x00\x00\xf9\xff\xff\xff\x02\x00\xabz\x02?\x00&\xf2\xee=\x00Nb\x10?\x00\xcf\x08\xc4>@\x01\x01\x00\x00\x00`)\x00\x00\x00\x00\x00\x00\xf9\xff\xff\xff\x02\x00\xf2\'\x00?\x00\xddx\xfc=\x00g\xd5g>\x00\xc4y\x15?@\x01\x01\x00\x00\x00\xd8(\x00\x00\x00\x00\x00\x00\xf9\xff\xff\xff\x02\x00\xec\xc7\x0f?\x00\x83\xd8\x11>\x00\x84\r\x8f>\x00U\x85\x0b?@\x01\x01\x00\x00\x00!)\x00\x00\x00\x00\x00\x00\xf9\xff\xff\xff\x02\x00O\xc8\x0b?\x00\xba\x01*>\x00\xbe\xc1\xb7>\x00js\x05?@\x01\x01\x00\x00\x000*\x00\x00\x00\x00\x00\x00\xf9\xff\xff\xff\x02\x00z=\x02?\x00u\x11G>\x00\x1b\r\xa0>\x00\xd5&\xff>@\x01\x01\x00\x00\x00\xc5+\x00\x00\x00\x00\x00\x00\xf9\xff\xff\xff\x02\x00\x1c\'\x07?\x00ZE\\>\x00t\xb5\x95>\x00\x00\xdc\x00?@\x01\x01\x00\x00\x00\xe3(\x00\x00\x00\x00\x00\x00\xf9\xff\xff\xff\x02\x00B}\x06?\x00\x00\xeed>\x0033#?\x00\x9b\x92\x14>@\x01\x01\x00\x00\x00\x11(\x00\x00\x00\x00\x00\x00\xf9\xff\xff\xff\x02\x007\x0e\x07?\x00?\xa7g>\x00\x84\r\xaf>\x00\xd0\x92\xfd>@\x01\x01\x00\x00\x00\xe9(\x00\x00\x00\x00\x00\x00\xf9\xff\xff\xff\x02\x00\x1c-\x00?\x00\x16\xa3o>\x00\xb3\x0c\xf1=\x00\x08\x034?@\x01\x01\x00\x00\x00_(\x00\x00\x00\x00\x00\x00\xf9\xff\xff\xff\x02\x00u2\x01?\x00\xb8\xbbq>\x00HP\xbc>\x00\xf0\xb3\xdc>@\x01\x01\x00\x00\x00,*\x00\x00\x00\x00\x00\x00\xf9\xff\xff\xff\x02\x00\xcb\x98\x03?\x00\x8d\xf1{>\x00U\xc1\x18?\x00y\xae1>@\x01\x01\x00\x00\x00\xc2+\x00\x00\x00\x00\x00\x00\xf9\xff\xff\xff\x02\x00a\xd7\x05?\x00\x12\x97|>\x00\x7f\xfbz>\x00U\xdf\x0b?@\x01\x01\x00\x00\x00\x1b+\x00\x00\x00\x00\x00\x00\xf9\xff\xff\xff\x02\x00\xbf5\x03?\x00\xe9\xad\xa0>\x00\xb6\x84\x9c>\x00\xfc\xd5\xda>@\x01\x01\x00\x00\x00\xa9+\x00\x00\x00\x00\x00\x00\xf9\xff\xff\xff\x02\x00"\'\x02?\x00\xab=\xbd>\x00\x89\xd2\x9e>\x00\xfe\x16\xaf>@\x01\x01\x00\x00\x00a)\x00\x00\x00\x00\x00\x00\xf9\xff\xff\xff\x02\x00H-\x05?\x00\xd0\x83\x97<\x00\x8e\x06\xf0>\x00o+#?@\x00\x01\x00\x00\x00c*\x00\x00\x00\x00\x00\x00\xf9\xff\xff\xff\x02\x00\x00\x9e\xf1>\x00\xff\xcc\xc5=\x00\xe0-\x10?\x00\xe7\xf7\xe5>@\x00\x01\x00\x00\x00-)\x00\x00\x00\x00\x00\x00\xf9\xff\xff\xff\x02\x00\x91f\xf5>\x00\xa4\x18\xcc=\x00\x00\x000?\x00\xf6\xae\xac>@\x00\x01\x00\x00\x00[*\x00\x00\x00\x00\x00\x00\xf9\xff\xff\xff\x02\x00H\xad\xf1>\x00\xc3\x0c\xe5=\x00\\ Q?\x00\xd7\x13f>@\x00\x01\x00\x00\x00\xa5(\x00\x00\x00\x00\x00\x00\xf9\xff\xff\xff\x02\x00\xa9\xb4\xea>\x00\x84\x8b\x02>\x003\xc41>\x0070J?@\x00\x01\x00\x00\x008*\x00\x00\x00\x00\x00\x00\xf9\xff\xff\xff\x02\x00\xcf\xbd\xf9>\x00q<\x0c>\x00`v\x0f?\x00\x19\xca\xcb>@\x00\x01\x00\x00\x00>*\x00\x00\x00\x00\x00\x00\xf9\xff\xff\xff\x02\x00Y\xa9\xf8>\x003\xea >\x00\xb7b\x7f>\x00\x8e\x88.?@\x00\x01\x00\x00\x00\xe5*\x00\x00\x00\x00\x00\x00\xf9\xff\xff\xff\x02\x00\xeb[\xfa>\x00?\x10/>\x00v\xe0\x0c?\x00O\xba\xba>@\x00\x01\x00\x00\x00\xbf)\x00\x00\x00\x00\x00\x00\xf9\xff\xff\xff\x02\x00\xa3\xec\xfa>\x00\x83\xcf1>\x00\x10X\x99>\x00L\xdc ?@\x00\x01\x00\x00\x009(\x00\x00\x00\x00\x00\x00\xf9\xff\xff\xff\x02\x00#0\xf7>\x00\xf2\xb8K>\x00\x89\xd2\x1e?\x00\xd3\x19\x93>@\x00\x01\x00\x00\x00\x01(\x00\x00\x00\x00\x00\x00\xf9\xff\xff\xff\x02\x007\xf3\xf5>\x00\xf4*h>\x00\xbc\x96\xf0>\x00D\x87\xcf>@\x00\x01\x00\x00\x00\xce(\x00\x00\x00\x00\x00\x00\xf9\xff\xff\xff\x02\x00h\x14\xf7>\x00\x03\x83\x81>\x00R\xb8\xfe>\x001j\xae>@\x00\x01\x00\x00\x00F)\x00\x00\x00\x00\x00\x00\xf9\xff\xff\xff\x02\x00\x15\xb0\xf9>\x00\x10\xfd\x85>\x00x\x0b$>\x00\x0e\xba*?@\x00\x01\x00\x00\x00\xf2\'\x00\x00\x00\x00\x00\x00\xf9\xff\xff\xff\x02\x00->\xfa>\x00\xed!\x8c>\x00\xac\xad\xd8>\x00\x17f\xf5>@\x00\x01\x00\x00\x00^*\x00\x00\x00\x00\x00\x00\xf9\xff\xff\xff\x02\x00\x97;\xe5>\x00\xe2\xfc\x90>\x00\x15\x8c\x8a>\x00\xc8\x05\x19?@\x00\x01\x00\x00\x00I)\x00\x00\x00\x00\x00\x00\xf9\xff\xff\xff\x02\x00\xb8)\xeb>\x00\x11\xcd\x97>\x00\xe1\x0b#?\x00\x80\x96\x7f>@\x00\x01\x00\x00\x00\xa3)\x00\x00\x00\x00\x00\x00\xf9\xff\xff\xff\x02\x00\x82\x99\xe3>\x00-\xb8\x98>\x00\xaa\xf1\x12>\x00\xc7\x1f(?@\x00\x01\x00\x00\x00X)\x00\x00\x00\x00\x00\x00\xf9\xff\xff\xff\x02\x00"\xe8\xf7>\x00\x03\x17\xa5>\x00\xc1\xca\xc1>\x00M\xba\xcd>@\x00\x01\x00\x00\x00\x8a(\x00\x00\x00\x00\x00\x00\xf9\xff\xff\xff\x02\x00K\xe3\xf6>\x009;\xbc>\x00\xa5,\xc3=\x00\xd9,1?@\x00\x01\x00\x00\x00\xe0)\x00\x00\x00\x00\x00\x00\xf9\xff\xff\xff\x02\x00\xefQ\xea>'
NtRp68
(dp69
S'domain'
p70
g65
sg14
NsbNNtRp71
(dp72
S'kernel_type'
p73
I2
sg70
g65
sS'kernel_func'
p74
NsS'computes_probabilities'
p75
I1
sS'n_SV'
p76
cOrange.core
IntList
p77
(tRp78
I18
aI19
a(dbsS'coef'
p79
cOrange.core
FloatListList
p80
(tRp81
cOrange.core
FloatList
p82
(tRp83
F8.1524333953857422
aF36.75
aF36.75
aF36.75
aF36.75
aF23.401622772216797
aF36.75
aF36.75
aF36.75
aF36.75
aF36.75
aF36.75
aF36.75
aF36.75
aF36.75
aF36.75
aF36.75
aF36.75
aF-1.6608254909515381
aF-36.75
aF-36.75
aF-15.449249267578125
aF-36.75
aF-36.75
aF-36.75
aF-36.75
aF-36.75
aF-36.75
aF-36.75
aF-36.75
aF-36.75
aF-36.75
aF-36.75
aF-36.75
aF-36.75
aF-36.75
aF-14.443982124328613
a(dba(dbsS'support_vectors'
p84
g68
sS'svm_type'
p85
I0
sS'class_var'
p86
g54
sS'examples'
p87
NsS'rho'
p88
g82
(tRp89
F1.9631558656692505
a(dbsS'prob_b'
p90
g82
(tRp91
F-0.062201313674449921
a(dbsS'prob_a'
p92
g82
(tRp93
F-2.2443034648895264
a(dbsbtRp94
(dp95
S'_SVMClassifier__wrapped'
p96
g71
sS'name'
p97
VSVM-RBF
p98
sb.